FANN_FLO_2.1
num_layers=2
learning_rate=0.700000
connection_rate=1.000000
network_type=0
learning_momentum=0.000000
training_algorithm=2
train_error_function=1
train_stop_function=0
cascade_output_change_fraction=0.010000
quickprop_decay=-0.000100
quickprop_mu=1.750000
rprop_increase_factor=1.200000
rprop_decrease_factor=0.500000
rprop_delta_min=0.000000
rprop_delta_max=50.000000
rprop_delta_zero=0.100000
cascade_output_stagnation_epochs=12
cascade_candidate_change_fraction=0.010000
cascade_candidate_stagnation_epochs=12
cascade_max_out_epochs=150
cascade_min_out_epochs=50
cascade_max_cand_epochs=150
cascade_min_cand_epochs=50
cascade_num_candidate_groups=2
bit_fail_limit=3.49999994039535522461e-01
cascade_candidate_limit=1.00000000000000000000e+03
cascade_weight_multiplier=4.00000005960464477539e-01
cascade_activation_functions_count=10
cascade_activation_functions=3 5 7 8 10 11 14 15 16 17 
cascade_activation_steepnesses_count=4
cascade_activation_steepnesses=2.50000000000000000000e-01 5.00000000000000000000e-01 7.50000000000000000000e-01 1.00000000000000000000e+00 
layer_sizes=27 4 
scale_included=0
neurons (num_inputs, activation_function, activation_steepness)=(0, 0, 0.00000000000000000000e+00) (0, 0, 0.00000000000000000000e+00) (0, 0, 0.00000000000000000000e+00) (0, 0, 0.00000000000000000000e+00) (0, 0, 0.00000000000000000000e+00) (0, 0, 0.00000000000000000000e+00) (0, 0, 0.00000000000000000000e+00) (0, 0, 0.00000000000000000000e+00) (0, 0, 0.00000000000000000000e+00) (0, 0, 0.00000000000000000000e+00) (0, 0, 0.00000000000000000000e+00) (0, 0, 0.00000000000000000000e+00) (0, 0, 0.00000000000000000000e+00) (0, 0, 0.00000000000000000000e+00) (0, 0, 0.00000000000000000000e+00) (0, 0, 0.00000000000000000000e+00) (0, 0, 0.00000000000000000000e+00) (0, 0, 0.00000000000000000000e+00) (0, 0, 0.00000000000000000000e+00) (0, 0, 0.00000000000000000000e+00) (0, 0, 0.00000000000000000000e+00) (0, 0, 0.00000000000000000000e+00) (0, 0, 0.00000000000000000000e+00) (0, 0, 0.00000000000000000000e+00) (0, 0, 0.00000000000000000000e+00) (0, 0, 0.00000000000000000000e+00) (0, 0, 0.00000000000000000000e+00) (27, 5, 5.00000000000000000000e-01) (27, 5, 5.00000000000000000000e-01) (27, 5, 5.00000000000000000000e-01) (0, 5, 0.00000000000000000000e+00) 
connections (connected_to_neuron, weight)=(0, -2.71665554046630859375e+01) (1, -1.00340757369995117188e+01) (2, -3.93139915466308593750e+01) (3, -4.43341398239135742188e+00) (4, 2.27879009246826171875e+01) (5, 1.50179634094238281250e+01) (6, -1.87921466827392578125e+01) (7, -4.10191297531127929688e+00) (8, 1.98156585693359375000e+01) (9, 8.48315429687500000000e+02) (10, 9.46298904418945312500e+01) (11, 1.47895288467407226562e+01) (12, 6.55662727355957031250e+00) (13, -7.38428735733032226562e+00) (14, -5.13844223022460937500e+01) (15, -3.94187355041503906250e+00) (16, -8.51434040069580078125e+00) (17, -7.54904597997665405273e-02) (18, 2.03812141418457031250e+01) (19, 2.79391250610351562500e+01) (20, 6.06401519775390625000e+01) (21, 2.48764419555664062500e+02) (22, -7.94145870208740234375e+00) (23, -8.98365707397460937500e+01) (24, -1.26837081909179687500e+02) (25, 8.69435958862304687500e+01) (26, -4.49971532821655273438e+00) (0, 2.37160491943359375000e+02) (1, -5.14671373367309570312e+00) (2, 2.69390106201171875000e+02) (3, -3.40751800537109375000e+01) (4, -6.90686874389648437500e+01) (5, -2.15096988677978515625e+01) (6, -2.71101627349853515625e+01) (7, 1.81141418457031250000e+02) (8, -6.83069686889648437500e+01) (9, -5.07690155029296875000e+02) (10, -3.40565582275390625000e+02) (11, -2.69153594970703125000e+01) (12, 1.99297195434570312500e+02) (13, 2.12522994995117187500e+02) (14, 2.42861755371093750000e+02) (15, 2.04713302612304687500e+02) (16, 9.35794601440429687500e+01) (17, -6.83541717529296875000e+01) (18, 1.73242706298828125000e+02) (19, -9.95315017700195312500e+01) (20, 2.03030578613281250000e+02) (21, 6.08755645751953125000e+01) (22, -4.05960578918457031250e+01) (23, -1.28537551879882812500e+02) (24, 2.55999984741210937500e+02) (25, 1.30185449218750000000e+03) (26, -6.74806060791015625000e+01) (0, 1.60893005371093750000e+02) (1, 1.04932609558105468750e+02) (2, -8.10022888183593750000e+01) (3, 1.41681152343750000000e+02) (4, 8.04650878906250000000e+01) (5, 1.70617553710937500000e+02) (6, -1.30855743408203125000e+02) (7, 2.59693389892578125000e+02) (8, 1.01883148193359375000e+02) (9, 3.31828094482421875000e+02) (10, 1.48604858398437500000e+03) (11, 9.32188987731933593750e+00) (12, -2.86323451995849609375e+01) (13, 1.15763236999511718750e+02) (14, 2.21669311523437500000e+02) (15, 1.89226379394531250000e+02) (16, 1.59892837524414062500e+02) (17, 1.10359321594238281250e+02) (18, 1.57751708984375000000e+02) (19, 2.11423385620117187500e+02) (20, 2.06993503570556640625e+01) (21, 1.29640945434570312500e+02) (22, -3.77809112548828125000e+02) (23, 6.24266052246093750000e+02) (24, 5.25198425292968750000e+02) (25, -3.44451660156250000000e+02) (26, -1.12947067260742187500e+02) 
